digraph Tree {
node [shape=box, style="filled, rounded", color="black", fontname="helvetica"] ;
edge [fontname="helvetica"] ;
0 [label="age <= 25.5\nentropy = 2.217\nsamples = 14\nvalue = [3, 4, 3, 3, 1]\nclass = Classical", fillcolor="#f3fded"] ;
1 [label="gender <= 0.5\nentropy = 1.0\nsamples = 6\nvalue = [0, 0, 3, 3, 0]\nclass = Dance", fillcolor="#ffffff"] ;
0 -> 1 [labeldistance=2.5, labelangle=45, headlabel="True"] ;
2 [label="entropy = 0.0\nsamples = 3\nvalue = [0, 0, 3, 0, 0]\nclass = Dance", fillcolor="#39e5c5"] ;
1 -> 2 ;
3 [label="entropy = 0.0\nsamples = 3\nvalue = [0, 0, 0, 3, 0]\nclass = HipHop", fillcolor="#3c39e5"] ;
1 -> 3 ;
4 [label="age <= 30.5\nentropy = 1.406\nsamples = 8\nvalue = [3, 4, 0, 0, 1]\nclass = Classical", fillcolor="#e5fad7"] ;
0 -> 4 [labeldistance=2.5, labelangle=-45, headlabel="False"] ;
5 [label="gender <= 0.5\nentropy = 0.811\nsamples = 4\nvalue = [3, 0, 0, 0, 1]\nclass = Acoustic", fillcolor="#eeab7b"] ;
4 -> 5 ;
6 [label="entropy = 0.0\nsamples = 3\nvalue = [3, 0, 0, 0, 0]\nclass = Acoustic", fillcolor="#e58139"] ;
5 -> 6 ;
7 [label="entropy = 0.0\nsamples = 1\nvalue = [0, 0, 0, 0, 1]\nclass = Jazz", fillcolor="#e539c0"] ;
5 -> 7 ;
8 [label="entropy = 0.0\nsamples = 4\nvalue = [0, 4, 0, 0, 0]\nclass = Classical", fillcolor="#7be539"] ;
4 -> 8 ;
}